digraph Tree {
0 [label="lr75_min <= -7.3644\ngini = 0.43603814801\nsamples = 137", shape="box"] ;
1 [label="wupmax_max <= 31.2607\ngini = 0.363894139887\nsamples = 46", shape="box"] ;
0 -> 1 ;
2 [label="wupmax_mean <= 6.0323\ngini = 0.249851279001\nsamples = 41", shape="box"] ;
1 -> 2 ;
3 [label="cqgmax_max_dt <= -4.0913\ngini = 0.375\nsamples = 4", shape="box"] ;
2 -> 3 ;
4 [label="gini = 0.0000\nsamples = 1\nvalue = [ 0.  1.]", shape="box"] ;
3 -> 4 ;
5 [label="gini = 0.0000\nsamples = 3\nvalue = [ 3.  0.]", shape="box"] ;
3 -> 5 ;
6 [label="r10cmx_min <= 40.7549\ngini = 0.149013878744\nsamples = 37", shape="box"] ;
2 -> 6 ;
7 [label="mlcins_max <= -4.9558\ngini = 0.5\nsamples = 6", shape="box"] ;
6 -> 7 ;
8 [label="gini = 0.0000\nsamples = 3\nvalue = [ 0.  3.]", shape="box"] ;
7 -> 8 ;
9 [label="gini = 0.0000\nsamples = 3\nvalue = [ 3.  0.]", shape="box"] ;
7 -> 9 ;
10 [label="gini = 0.0000\nsamples = 31\nvalue = [  0.  31.]", shape="box"] ;
6 -> 10 ;
11 [label="gini = 0.0000\nsamples = 5\nvalue = [ 5.  0.]", shape="box"] ;
1 -> 11 ;
12 [label="tmp500_mean <= -10.0056\ngini = 0.178239343075\nsamples = 91", shape="box"] ;
0 -> 12 ;
13 [label="cqgmax_mean <= 15.9797\ngini = 0.375\nsamples = 4", shape="box"] ;
12 -> 13 ;
14 [label="gini = 0.0000\nsamples = 1\nvalue = [ 1.  0.]", shape="box"] ;
13 -> 14 ;
15 [label="gini = 0.0000\nsamples = 3\nvalue = [ 0.  3.]", shape="box"] ;
13 -> 15 ;
16 [label="r10cmx_min <= 52.6700\ngini = 0.128418549346\nsamples = 87", shape="box"] ;
12 -> 16 ;
17 [label="Centroid_Lat <= 35.6886\ngini = 0.109518658734\nsamples = 86", shape="box"] ;
16 -> 17 ;
18 [label="gini = 0.0000\nsamples = 1\nvalue = [ 0.  1.]", shape="box"] ;
17 -> 18 ;
19 [label="sblcl_std <= 25.1991\ngini = 0.0896885813149\nsamples = 85", shape="box"] ;
17 -> 19 ;
20 [label="gini = 0.0000\nsamples = 1\nvalue = [ 0.  1.]", shape="box"] ;
19 -> 20 ;
21 [label="sblcl_mean <= 359.6281\ngini = 0.0688775510204\nsamples = 84", shape="box"] ;
19 -> 21 ;
22 [label="wdnmax_mean <= -3.3682\ngini = 0.444444444444\nsamples = 3", shape="box"] ;
21 -> 22 ;
23 [label="gini = 0.0000\nsamples = 2\nvalue = [ 2.  0.]", shape="box"] ;
22 -> 23 ;
24 [label="gini = 0.0000\nsamples = 1\nvalue = [ 0.  1.]", shape="box"] ;
22 -> 24 ;
25 [label="weighted_moments_hu_0 <= -4.6109\ngini = 0.0481633897272\nsamples = 81", shape="box"] ;
21 -> 25 ;
26 [label="eccentricity <= 0.7968\ngini = 0.297520661157\nsamples = 11", shape="box"] ;
25 -> 26 ;
27 [label="gini = 0.0000\nsamples = 9\nvalue = [ 9.  0.]", shape="box"] ;
26 -> 27 ;
28 [label="gini = 0.0000\nsamples = 2\nvalue = [ 0.  2.]", shape="box"] ;
26 -> 28 ;
29 [label="gini = 0.0000\nsamples = 70\nvalue = [ 70.   0.]", shape="box"] ;
25 -> 29 ;
30 [label="gini = 0.0000\nsamples = 1\nvalue = [ 0.  1.]", shape="box"] ;
16 -> 30 ;
}